encog,BasicNetwork,java,3.2.0,1,1407175111059
[BASIC]
[BASIC:PARAMS]
[BASIC:NETWORK]
beginTraining=0
connectionLimit=0
contextTargetOffset=0,0,0
contextTargetSize=0,0,0
endTraining=2
hasContext=f
inputCount=3
layerCounts=6,5,4
layerFeedCounts=6,4,3
layerContextCount=0,0,0
layerIndex=0,6,11
output=0,0,0,0,0,0,0,0,0,0,1,0,0,0,1
outputCount=6
weightIndex=0,30,46
weights=-579.0321824129,-311.9958628702,-190.3604538794,-1268.1719873064,-1449.5531911754,853.0073110068,-822.5889498787,605.1998095719,-373.2845447771,-1295.094451582,816.8158462526,1129.3285727944,-413.004614716,-580.1025122333,-706.9118627211,-2392.7298940819,1004.6002640952,-844.1719900667,166.7229940226,1198.135162579,488.3189338048,-254.1151817246,206.0033077551,757.198680931,-1318.1973989109,-477.4810666119,-383.5259270132,-293.8970667523,-570.20608876,-599.1058865283,65713.7562591663,181621.8308681646,402234.7503358777,-114112.9499265311,-12963.8862950744,55735.7718581482,-140364.9316271712,-13719.193009969,-7773.433757274,-76053.1138471716,61147.6005895137,-28427.5521319188,-39721.9631721333,-238249.3384695712,24192.7963368041,-34765.4583462708
biasActivation=0,1,1
[BASIC:ACTIVATION]
"org.encog.engine.network.activation.ActivationSigmoid"
"org.encog.engine.network.activation.ActivationSigmoid"
"org.encog.engine.network.activation.ActivationLinear"
